
net
{
	node_size = (80 40);
	HR_Grid_X = "10";
    	HR_Grid_Y = "10";
	HR_Grid_GridSnap = "1";
    	HR_Grid_GridShow = "0";
	HR_Font_Name = "Arial";
	HR_Font_Size = "-12";
	HR_Font_Weight = "400";
	HR_Font_Italic = "0";
	HR_Propagate_Auto = "1";
}

node V_0
{
    states = ("a" "b" "c");
    label = "FEV";
    position = (88 275);
}

node V_1
{
    states = ("a" "b" "c");
    label = "Kol";
    position = (331 21);
}

node V_2
{
    states = ("a" "b");
    label = "Hyp";
    position = (156 401);
}

node V_3
{
    states = ("a" "b" "c");
    label = "BMI";
    position = (261 528);
}

node V_4
{
    states = ("b" "c");
    label = "Smok";
    position = (365 275);
}

node V_5
{
    states = ("b" "c");
    label = "Alc";
    position = (643 21);
}

node V_6
{
    states = ("b" "c");
    label = "Work";
    position = (575 275);
}

node V_7
{
    states = ("b" "c");
    label = "Sex";
    position = (365 401);
}

node V_8
{
    states = ("b" "c");
    label = "Year";
    position = (575 148);
}

potential ( V_0 | V_7)
{
    data = (0.180369662250222 0.445114477586376 0.374515860163402
0.402243331701097 0.579992486369347 0.0177641819295559
);
}

potential ( V_1 | V_8 V_7)
{
    data = (0.173679570486329 0.439127995460867 0.387192434052805
0.0405692636315114 0.306718417905895 0.652712318462594
0.394356746817596 0.470636013672924 0.13500723950948
0.193571563654323 0.471280015094434 0.335148421251243
);
}

potential ( V_2 | V_3)
{
    data = (0.565641350859159 0.434358649140841
0.47729279677626 0.52270720322374
0.269929937598966 0.730070062401034
);
}

potential ( V_3 )
{
    data = (0.323187291829919 0.406200358676034 0.270612349494047
);
}

potential ( V_4 | V_7)
{
    data = (0.120532431351513 0.879467568648487
0.460392851405444 0.539607148594556
);
}

potential ( V_5 | V_8 V_7)
{
    data = (0.6586919931913 0.3413080068087
0.885916273697856 0.114083726302144
0.219038033749542 0.780961966250458
0.547646057845117 0.452353942154883
);
}

potential ( V_6 | V_7)
{
    data = (0.215840564872528 0.784159435127472
0.0778457576629059 0.922154242337094
);
}

potential ( V_7 | V_3)
{
    data = (0.465752338682178 0.534247661317822
0.624889617730569 0.375110382269431
0.436943760675272 0.563056239324728
);
}

potential ( V_8 | V_6)
{
    data = (0.518452075839619 0.481547924160381
0.259652771541794 0.740347228458206
);
}
