net
{
    node_size = (80 40);
    HR_Grid_X = "10";
    HR_Grid_Y = "10";
    HR_Grid_GridSnap = "1";
    HR_Grid_GridShow = "0";
    HR_Font_Name = "Arial";
    HR_Font_Size = "-12";
    HR_Font_Weight = "400";
    HR_Font_Italic = "0";
    HR_Propagate_Auto = "1";
}

node V_0
{
  states = ("0" "1" "2");
  label = "FEV";
  position = (0 0);
}

node V_1
{
  states = ("0" "1" "2");
  label = "Kol";
  position = (0 0);
}

node V_2
{
  states = ("0" "1");
  label = "Hyp";
  position = (0 0);
}

node V_3
{
  states = ("0" "1" "2");
  label = "BMI";
  position = (0 0);
}

node V_4
{
  states = ("N" "Y");
  label = "Smok";
  position = (0 0);
}

node V_5
{
  states = ("N" "Y");
  label = "Alc";
  position = (0 0);
}

node V_6
{
  states = ("N" "Y");
  label = "Work";
  position = (0 0);
}

node V_7
{
  states = ("Male" "Female");
  label = "Sex";
  position = (0 0);
}

node V_8
{
  states = ("1967" "1984");
  label = "Year";
  position = (0 0);
}

potential ( V_0| V_4)
{
  data = (0.28624192059095105 0.5096952908587258 0.20406278855032317 0.28624192059095105 0.5096952908587258 0.20406278855032317);
}

potential ( V_1)
{
  data = (0.24192059095106186 0.44321329639889195 0.31486611265004616);
}

potential ( V_2| V_3 V_5 V_4)
{
  data = (0.44967682363804246 0.5503231763619575 0.44967682363804246 0.5503231763619575 0.44967682363804246 0.5503231763619575 0.44967682363804246 0.5503231763619575 0.44967682363804246 0.5503231763619575 0.44967682363804246 0.5503231763619575 0.44967682363804246 0.5503231763619575 0.44967682363804246 0.5503231763619575 0.44967682363804246 0.5503231763619575 0.44967682363804246 0.5503231763619575 0.44967682363804246 0.5503231763619575 0.44967682363804246 0.5503231763619575);
}

potential ( V_3| V_8 V_7)
{
  data = (0.3231763619575254 0.40627885503231764 0.270544783010157 0.3231763619575254 0.40627885503231764 0.270544783010157 0.3231763619575254 0.40627885503231764 0.270544783010157 0.3231763619575254 0.40627885503231764 0.270544783010157);
}

potential ( V_4| V_7)
{
  data = (0.28254847645429365 0.7174515235457064 0.28254847645429365 0.7174515235457064);
}

potential ( V_5| V_7)
{
  data = (0.4930747922437673 0.5069252077562327 0.4930747922437673 0.5069252077562327);
}

potential ( V_6| V_8 V_7)
{
  data = (0.14958448753462603 0.850415512465374 0.14958448753462603 0.850415512465374 0.14958448753462603 0.850415512465374 0.14958448753462603 0.850415512465374);
}

potential ( V_7)
{
  data = (0.5226223453370268 0.4773776546629732);
}

potential ( V_8)
{
  data = (0.2982456140350877 0.7017543859649122);
}
